digraph Tree {
node [shape=box, style="filled", color="black"] ;
0 [label="International plan <= 0.5\ngini = 0.255\nsamples = 2333\nvalue = [1983, 350]", fillcolor="#e58139d2"] ;
1 [label="Total day minutes <= 264.45\ngini = 0.214\nsamples = 2122\nvalue = [1864, 258]", fillcolor="#e58139dc"] ;
0 -> 1 [labeldistance=2.5, labelangle=45, headlabel="True"] ;
2 [label="Customer service calls <= 3.5\ngini = 0.16\nsamples = 1989\nvalue = [1814, 175]", fillcolor="#e58139e6"] ;
1 -> 2 ;
3 [label="Total day charge <= 38.185\ngini = 0.096\nsamples = 1828\nvalue = [1736, 92]", fillcolor="#e58139f1"] ;
2 -> 3 ;
4 [label="Account length <= 224.5\ngini = 0.056\nsamples = 1570\nvalue = [1525, 45]", fillcolor="#e58139f7"] ;
3 -> 4 ;
5 [label="Total eve charge <= 27.965\ngini = 0.055\nsamples = 1568\nvalue = [1524, 44]", fillcolor="#e58139f8"] ;
4 -> 5 ;
6 [label="Total day calls <= 121.5\ngini = 0.052\nsamples = 1560\nvalue = [1518, 42]", fillcolor="#e58139f8"] ;
5 -> 6 ;
7 [label="Total night minutes <= 249.3\ngini = 0.043\nsamples = 1334\nvalue = [1305, 29]", fillcolor="#e58139f9"] ;
6 -> 7 ;
8 [label="Number vmail messages <= 43.5\ngini = 0.03\nsamples = 1117\nvalue = [1100, 17]", fillcolor="#e58139fb"] ;
7 -> 8 ;
9 [label="Total night calls <= 104.5\ngini = 0.027\nsamples = 1104\nvalue = [1089, 15]", fillcolor="#e58139fb"] ;
8 -> 9 ;
10 [label="Total day calls <= 115.5\ngini = 0.009\nsamples = 642\nvalue = [639, 3]", fillcolor="#e58139fe"] ;
9 -> 10 ;
11 [label="gini = 0.003\nsamples = 576\nvalue = [575, 1]", fillcolor="#e58139ff"] ;
10 -> 11 ;
12 [label="gini = 0.059\nsamples = 66\nvalue = [64, 2]", fillcolor="#e58139f7"] ;
10 -> 12 ;
13 [label="Account length <= 152.5\ngini = 0.051\nsamples = 462\nvalue = [450, 12]", fillcolor="#e58139f8"] ;
9 -> 13 ;
14 [label="gini = 0.038\nsamples = 413\nvalue = [405, 8]", fillcolor="#e58139fa"] ;
13 -> 14 ;
15 [label="gini = 0.15\nsamples = 49\nvalue = [45, 4]", fillcolor="#e58139e8"] ;
13 -> 15 ;
16 [label="Account length <= 131.5\ngini = 0.26\nsamples = 13\nvalue = [11, 2]", fillcolor="#e58139d1"] ;
8 -> 16 ;
17 [label="gini = 0.0\nsamples = 10\nvalue = [10, 0]", fillcolor="#e58139ff"] ;
16 -> 17 ;
18 [label="Number vmail messages <= 49.0\ngini = 0.444\nsamples = 3\nvalue = [1, 2]", fillcolor="#399de57f"] ;
16 -> 18 ;
19 [label="gini = 0.0\nsamples = 2\nvalue = [0, 2]", fillcolor="#399de5ff"] ;
18 -> 19 ;
20 [label="gini = 0.0\nsamples = 1\nvalue = [1, 0]", fillcolor="#e58139ff"] ;
18 -> 20 ;
21 [label="Total day charge <= 36.95\ngini = 0.104\nsamples = 217\nvalue = [205, 12]", fillcolor="#e58139f0"] ;
7 -> 21 ;
22 [label="Total day calls <= 84.5\ngini = 0.075\nsamples = 205\nvalue = [197, 8]", fillcolor="#e58139f5"] ;
21 -> 22 ;
23 [label="Total intl minutes <= 15.6\ngini = 0.206\nsamples = 43\nvalue = [38, 5]", fillcolor="#e58139dd"] ;
22 -> 23 ;
24 [label="gini = 0.172\nsamples = 42\nvalue = [38, 4]", fillcolor="#e58139e4"] ;
23 -> 24 ;
25 [label="gini = 0.0\nsamples = 1\nvalue = [0, 1]", fillcolor="#399de5ff"] ;
23 -> 25 ;
26 [label="Total night minutes <= 353.55\ngini = 0.036\nsamples = 162\nvalue = [159, 3]", fillcolor="#e58139fa"] ;
22 -> 26 ;
27 [label="gini = 0.025\nsamples = 160\nvalue = [158, 2]", fillcolor="#e58139fc"] ;
26 -> 27 ;
28 [label="gini = 0.5\nsamples = 2\nvalue = [1, 1]", fillcolor="#e5813900"] ;
26 -> 28 ;
29 [label="Total day minutes <= 219.15\ngini = 0.444\nsamples = 12\nvalue = [8, 4]", fillcolor="#e581397f"] ;
21 -> 29 ;
30 [label="gini = 0.0\nsamples = 2\nvalue = [0, 2]", fillcolor="#399de5ff"] ;
29 -> 30 ;
31 [label="Total eve minutes <= 266.45\ngini = 0.32\nsamples = 10\nvalue = [8, 2]", fillcolor="#e58139bf"] ;
29 -> 31 ;
32 [label="gini = 0.0\nsamples = 8\nvalue = [8, 0]", fillcolor="#e58139ff"] ;
31 -> 32 ;
33 [label="gini = 0.0\nsamples = 2\nvalue = [0, 2]", fillcolor="#399de5ff"] ;
31 -> 33 ;
34 [label="Number vmail messages <= 41.5\ngini = 0.108\nsamples = 226\nvalue = [213, 13]", fillcolor="#e58139ef"] ;
6 -> 34 ;
35 [label="Total intl calls <= 14.0\ngini = 0.101\nsamples = 225\nvalue = [213, 12]", fillcolor="#e58139f1"] ;
34 -> 35 ;
36 [label="Total intl charge <= 1.745\ngini = 0.094\nsamples = 223\nvalue = [212, 11]", fillcolor="#e58139f2"] ;
35 -> 36 ;
37 [label="Total day minutes <= 192.8\ngini = 0.278\nsamples = 18\nvalue = [15, 3]", fillcolor="#e58139cc"] ;
36 -> 37 ;
38 [label="gini = 0.0\nsamples = 14\nvalue = [14, 0]", fillcolor="#e58139ff"] ;
37 -> 38 ;
39 [label="gini = 0.375\nsamples = 4\nvalue = [1, 3]", fillcolor="#399de5aa"] ;
37 -> 39 ;
40 [label="Total night calls <= 146.5\ngini = 0.075\nsamples = 205\nvalue = [197, 8]", fillcolor="#e58139f5"] ;
36 -> 40 ;
41 [label="gini = 0.066\nsamples = 204\nvalue = [197, 7]", fillcolor="#e58139f6"] ;
40 -> 41 ;
42 [label="gini = 0.0\nsamples = 1\nvalue = [0, 1]", fillcolor="#399de5ff"] ;
40 -> 42 ;
43 [label="Total day charge <= 30.49\ngini = 0.5\nsamples = 2\nvalue = [1, 1]", fillcolor="#e5813900"] ;
35 -> 43 ;
44 [label="gini = 0.0\nsamples = 1\nvalue = [0, 1]", fillcolor="#399de5ff"] ;
43 -> 44 ;
45 [label="gini = 0.0\nsamples = 1\nvalue = [1, 0]", fillcolor="#e58139ff"] ;
43 -> 45 ;
46 [label="gini = 0.0\nsamples = 1\nvalue = [0, 1]", fillcolor="#399de5ff"] ;
34 -> 46 ;
47 [label="Total night minutes <= 251.9\ngini = 0.375\nsamples = 8\nvalue = [6, 2]", fillcolor="#e58139aa"] ;
5 -> 47 ;
48 [label="gini = 0.0\nsamples = 6\nvalue = [6, 0]", fillcolor="#e58139ff"] ;
47 -> 48 ;
49 [label="gini = 0.0\nsamples = 2\nvalue = [0, 2]", fillcolor="#399de5ff"] ;
47 -> 49 ;
50 [label="Customer service calls <= 1.0\ngini = 0.5\nsamples = 2\nvalue = [1, 1]", fillcolor="#e5813900"] ;
4 -> 50 ;
51 [label="gini = 0.0\nsamples = 1\nvalue = [0, 1]", fillcolor="#399de5ff"] ;
50 -> 51 ;
52 [label="gini = 0.0\nsamples = 1\nvalue = [1, 0]", fillcolor="#e58139ff"] ;
50 -> 52 ;
53 [label="Total eve minutes <= 266.7\ngini = 0.298\nsamples = 258\nvalue = [211, 47]", fillcolor="#e58139c6"] ;
3 -> 53 ;
54 [label="Total day minutes <= 244.85\ngini = 0.188\nsamples = 229\nvalue = [205, 24]", fillcolor="#e58139e1"] ;
53 -> 54 ;
55 [label="Account length <= 18.5\ngini = 0.094\nsamples = 142\nvalue = [135, 7]", fillcolor="#e58139f2"] ;
54 -> 55 ;
56 [label="gini = 0.0\nsamples = 1\nvalue = [0, 1]", fillcolor="#399de5ff"] ;
55 -> 56 ;
57 [label="Total day charge <= 38.21\ngini = 0.081\nsamples = 141\nvalue = [135, 6]", fillcolor="#e58139f4"] ;
55 -> 57 ;
58 [label="Total eve calls <= 80.0\ngini = 0.5\nsamples = 2\nvalue = [1, 1]", fillcolor="#e5813900"] ;
57 -> 58 ;
59 [label="gini = 0.0\nsamples = 1\nvalue = [1, 0]", fillcolor="#e58139ff"] ;
58 -> 59 ;
60 [label="gini = 0.0\nsamples = 1\nvalue = [0, 1]", fillcolor="#399de5ff"] ;
58 -> 60 ;
61 [label="Total night minutes <= 208.15\ngini = 0.069\nsamples = 139\nvalue = [134, 5]", fillcolor="#e58139f5"] ;
57 -> 61 ;
62 [label="gini = 0.0\nsamples = 70\nvalue = [70, 0]", fillcolor="#e58139ff"] ;
61 -> 62 ;
63 [label="Total night minutes <= 209.2\ngini = 0.134\nsamples = 69\nvalue = [64, 5]", fillcolor="#e58139eb"] ;
61 -> 63 ;
64 [label="gini = 0.0\nsamples = 1\nvalue = [0, 1]", fillcolor="#399de5ff"] ;
63 -> 64 ;
65 [label="Total intl charge <= 2.825\ngini = 0.111\nsamples = 68\nvalue = [64, 4]", fillcolor="#e58139ef"] ;
63 -> 65 ;
66 [label="gini = 0.0\nsamples = 33\nvalue = [33, 0]", fillcolor="#e58139ff"] ;
65 -> 66 ;
67 [label="gini = 0.202\nsamples = 35\nvalue = [31, 4]", fillcolor="#e58139de"] ;
65 -> 67 ;
68 [label="Total eve minutes <= 214.35\ngini = 0.314\nsamples = 87\nvalue = [70, 17]", fillcolor="#e58139c1"] ;
54 -> 68 ;
69 [label="Total intl minutes <= 16.8\ngini = 0.07\nsamples = 55\nvalue = [53, 2]", fillcolor="#e58139f5"] ;
68 -> 69 ;
70 [label="Total eve calls <= 124.5\ngini = 0.036\nsamples = 54\nvalue = [53, 1]", fillcolor="#e58139fa"] ;
69 -> 70 ;
71 [label="gini = 0.0\nsamples = 50\nvalue = [50, 0]", fillcolor="#e58139ff"] ;
70 -> 71 ;
72 [label="Total eve charge <= 17.415\ngini = 0.375\nsamples = 4\nvalue = [3, 1]", fillcolor="#e58139aa"] ;
70 -> 72 ;
73 [label="gini = 0.0\nsamples = 3\nvalue = [3, 0]", fillcolor="#e58139ff"] ;
72 -> 73 ;
74 [label="gini = 0.0\nsamples = 1\nvalue = [0, 1]", fillcolor="#399de5ff"] ;
72 -> 74 ;
75 [label="gini = 0.0\nsamples = 1\nvalue = [0, 1]", fillcolor="#399de5ff"] ;
69 -> 75 ;
76 [label="Total night minutes <= 227.25\ngini = 0.498\nsamples = 32\nvalue = [17, 15]", fillcolor="#e581391e"] ;
68 -> 76 ;
77 [label="Total intl charge <= 3.065\ngini = 0.423\nsamples = 23\nvalue = [16, 7]", fillcolor="#e581398f"] ;
76 -> 77 ;
78 [label="Total day calls <= 103.5\ngini = 0.278\nsamples = 18\nvalue = [15, 3]", fillcolor="#e58139cc"] ;
77 -> 78 ;
79 [label="gini = 0.0\nsamples = 11\nvalue = [11, 0]", fillcolor="#e58139ff"] ;
78 -> 79 ;
80 [label="Total night calls <= 103.5\ngini = 0.49\nsamples = 7\nvalue = [4, 3]", fillcolor="#e5813940"] ;
78 -> 80 ;
81 [label="gini = 0.32\nsamples = 5\nvalue = [4, 1]", fillcolor="#e58139bf"] ;
80 -> 81 ;
82 [label="gini = 0.0\nsamples = 2\nvalue = [0, 2]", fillcolor="#399de5ff"] ;
80 -> 82 ;
83 [label="Total eve minutes <= 223.3\ngini = 0.32\nsamples = 5\nvalue = [1, 4]", fillcolor="#399de5bf"] ;
77 -> 83 ;
84 [label="gini = 0.0\nsamples = 1\nvalue = [1, 0]", fillcolor="#e58139ff"] ;
83 -> 84 ;
85 [label="gini = 0.0\nsamples = 4\nvalue = [0, 4]", fillcolor="#399de5ff"] ;
83 -> 85 ;
86 [label="Number vmail messages <= 14.0\ngini = 0.198\nsamples = 9\nvalue = [1, 8]", fillcolor="#399de5df"] ;
76 -> 86 ;
87 [label="gini = 0.0\nsamples = 8\nvalue = [0, 8]", fillcolor="#399de5ff"] ;
86 -> 87 ;
88 [label="gini = 0.0\nsamples = 1\nvalue = [1, 0]", fillcolor="#e58139ff"] ;
86 -> 88 ;
89 [label="Voice mail plan <= 0.5\ngini = 0.328\nsamples = 29\nvalue = [6, 23]", fillcolor="#399de5bc"] ;
53 -> 89 ;
90 [label="gini = 0.0\nsamples = 5\nvalue = [5, 0]", fillcolor="#e58139ff"] ;
89 -> 90 ;
91 [label="Total eve minutes <= 267.0\ngini = 0.08\nsamples = 24\nvalue = [1, 23]", fillcolor="#399de5f4"] ;
89 -> 91 ;
92 [label="Total intl minutes <= 8.1\ngini = 0.5\nsamples = 2\nvalue = [1, 1]", fillcolor="#e5813900"] ;
91 -> 92 ;
93 [label="gini = 0.0\nsamples = 1\nvalue = [1, 0]", fillcolor="#e58139ff"] ;
92 -> 93 ;
94 [label="gini = 0.0\nsamples = 1\nvalue = [0, 1]", fillcolor="#399de5ff"] ;
92 -> 94 ;
95 [label="gini = 0.0\nsamples = 22\nvalue = [0, 22]", fillcolor="#399de5ff"] ;
91 -> 95 ;
96 [label="Total day minutes <= 174.4\ngini = 0.5\nsamples = 161\nvalue = [78, 83]", fillcolor="#399de50f"] ;
2 -> 96 ;
97 [label="Total eve charge <= 16.22\ngini = 0.33\nsamples = 91\nvalue = [19, 72]", fillcolor="#399de5bc"] ;
96 -> 97 ;
98 [label="gini = 0.0\nsamples = 43\nvalue = [0, 43]", fillcolor="#399de5ff"] ;
97 -> 98 ;
99 [label="Total day minutes <= 135.8\ngini = 0.478\nsamples = 48\nvalue = [19, 29]", fillcolor="#399de558"] ;
97 -> 99 ;
100 [label="gini = 0.0\nsamples = 21\nvalue = [0, 21]", fillcolor="#399de5ff"] ;
99 -> 100 ;
101 [label="Total night minutes <= 156.05\ngini = 0.417\nsamples = 27\nvalue = [19, 8]", fillcolor="#e5813994"] ;
99 -> 101 ;
102 [label="gini = 0.0\nsamples = 3\nvalue = [0, 3]", fillcolor="#399de5ff"] ;
101 -> 102 ;
103 [label="Total day charge <= 29.015\ngini = 0.33\nsamples = 24\nvalue = [19, 5]", fillcolor="#e58139bc"] ;
101 -> 103 ;
104 [label="Total intl calls <= 9.5\ngini = 0.287\nsamples = 23\nvalue = [19, 4]", fillcolor="#e58139c9"] ;
103 -> 104 ;
105 [label="Total day charge <= 25.78\ngini = 0.236\nsamples = 22\nvalue = [19, 3]", fillcolor="#e58139d7"] ;
104 -> 105 ;
106 [label="Total intl calls <= 4.0\ngini = 0.469\nsamples = 8\nvalue = [5, 3]", fillcolor="#e5813966"] ;
105 -> 106 ;
107 [label="gini = 0.375\nsamples = 4\nvalue = [1, 3]", fillcolor="#399de5aa"] ;
106 -> 107 ;
108 [label="gini = 0.0\nsamples = 4\nvalue = [4, 0]", fillcolor="#e58139ff"] ;
106 -> 108 ;
109 [label="gini = 0.0\nsamples = 14\nvalue = [14, 0]", fillcolor="#e58139ff"] ;
105 -> 109 ;
110 [label="gini = 0.0\nsamples = 1\nvalue = [0, 1]", fillcolor="#399de5ff"] ;
104 -> 110 ;
111 [label="gini = 0.0\nsamples = 1\nvalue = [0, 1]", fillcolor="#399de5ff"] ;
103 -> 111 ;
112 [label="Total eve minutes <= 135.1\ngini = 0.265\nsamples = 70\nvalue = [59, 11]", fillcolor="#e58139cf"] ;
96 -> 112 ;
113 [label="Total day calls <= 130.0\ngini = 0.32\nsamples = 10\nvalue = [2, 8]", fillcolor="#399de5bf"] ;
112 -> 113 ;
114 [label="Total eve calls <= 125.0\ngini = 0.198\nsamples = 9\nvalue = [1, 8]", fillcolor="#399de5df"] ;
113 -> 114 ;
115 [label="gini = 0.0\nsamples = 8\nvalue = [0, 8]", fillcolor="#399de5ff"] ;
114 -> 115 ;
116 [label="gini = 0.0\nsamples = 1\nvalue = [1, 0]", fillcolor="#e58139ff"] ;
114 -> 116 ;
117 [label="gini = 0.0\nsamples = 1\nvalue = [1, 0]", fillcolor="#e58139ff"] ;
113 -> 117 ;
118 [label="Total day calls <= 144.5\ngini = 0.095\nsamples = 60\nvalue = [57, 3]", fillcolor="#e58139f2"] ;
112 -> 118 ;
119 [label="Total night calls <= 120.5\ngini = 0.065\nsamples = 59\nvalue = [57, 2]", fillcolor="#e58139f6"] ;
118 -> 119 ;
120 [label="gini = 0.0\nsamples = 51\nvalue = [51, 0]", fillcolor="#e58139ff"] ;
119 -> 120 ;
121 [label="Total intl charge <= 2.345\ngini = 0.375\nsamples = 8\nvalue = [6, 2]", fillcolor="#e58139aa"] ;
119 -> 121 ;
122 [label="Total intl charge <= 1.58\ngini = 0.444\nsamples = 3\nvalue = [1, 2]", fillcolor="#399de57f"] ;
121 -> 122 ;
123 [label="gini = 0.0\nsamples = 1\nvalue = [1, 0]", fillcolor="#e58139ff"] ;
122 -> 123 ;
124 [label="gini = 0.0\nsamples = 2\nvalue = [0, 2]", fillcolor="#399de5ff"] ;
122 -> 124 ;
125 [label="gini = 0.0\nsamples = 5\nvalue = [5, 0]", fillcolor="#e58139ff"] ;
121 -> 125 ;
126 [label="gini = 0.0\nsamples = 1\nvalue = [0, 1]", fillcolor="#399de5ff"] ;
118 -> 126 ;
127 [label="Voice mail plan <= 0.5\ngini = 0.469\nsamples = 133\nvalue = [50, 83]", fillcolor="#399de565"] ;
1 -> 127 ;
128 [label="Total intl charge <= 1.875\ngini = 0.062\nsamples = 31\nvalue = [30, 1]", fillcolor="#e58139f6"] ;
127 -> 128 ;
129 [label="Total night minutes <= 226.85\ngini = 0.444\nsamples = 3\nvalue = [2, 1]", fillcolor="#e581397f"] ;
128 -> 129 ;
130 [label="gini = 0.0\nsamples = 1\nvalue = [0, 1]", fillcolor="#399de5ff"] ;
129 -> 130 ;
131 [label="gini = 0.0\nsamples = 2\nvalue = [2, 0]", fillcolor="#e58139ff"] ;
129 -> 131 ;
132 [label="gini = 0.0\nsamples = 28\nvalue = [28, 0]", fillcolor="#e58139ff"] ;
128 -> 132 ;
133 [label="Total eve minutes <= 187.75\ngini = 0.315\nsamples = 102\nvalue = [20, 82]", fillcolor="#399de5c1"] ;
127 -> 133 ;
134 [label="Total day charge <= 47.22\ngini = 0.499\nsamples = 38\nvalue = [20, 18]", fillcolor="#e5813919"] ;
133 -> 134 ;
135 [label="Total night charge <= 11.595\ngini = 0.231\nsamples = 15\nvalue = [13, 2]", fillcolor="#e58139d8"] ;
134 -> 135 ;
136 [label="gini = 0.0\nsamples = 13\nvalue = [13, 0]", fillcolor="#e58139ff"] ;
135 -> 136 ;
137 [label="gini = 0.0\nsamples = 2\nvalue = [0, 2]", fillcolor="#399de5ff"] ;
135 -> 137 ;
138 [label="Total eve minutes <= 144.35\ngini = 0.423\nsamples = 23\nvalue = [7, 16]", fillcolor="#399de58f"] ;
134 -> 138 ;
139 [label="gini = 0.0\nsamples = 4\nvalue = [4, 0]", fillcolor="#e58139ff"] ;
138 -> 139 ;
140 [label="Total night charge <= 6.835\ngini = 0.266\nsamples = 19\nvalue = [3, 16]", fillcolor="#399de5cf"] ;
138 -> 140 ;
141 [label="gini = 0.0\nsamples = 3\nvalue = [3, 0]", fillcolor="#e58139ff"] ;
140 -> 141 ;
142 [label="gini = 0.0\nsamples = 16\nvalue = [0, 16]", fillcolor="#399de5ff"] ;
140 -> 142 ;
143 [label="gini = 0.0\nsamples = 64\nvalue = [0, 64]", fillcolor="#399de5ff"] ;
133 -> 143 ;
144 [label="Total intl calls <= 2.5\ngini = 0.492\nsamples = 211\nvalue = [119, 92]", fillcolor="#e581393a"] ;
0 -> 144 [labeldistance=2.5, labelangle=-45, headlabel="False"] ;
145 [label="gini = 0.0\nsamples = 45\nvalue = [0, 45]", fillcolor="#399de5ff"] ;
144 -> 145 ;
146 [label="Total intl charge <= 3.535\ngini = 0.406\nsamples = 166\nvalue = [119, 47]", fillcolor="#e581399a"] ;
144 -> 146 ;
147 [label="Total day charge <= 46.31\ngini = 0.209\nsamples = 135\nvalue = [119, 16]", fillcolor="#e58139dd"] ;
146 -> 147 ;
148 [label="Total eve charge <= 27.615\ngini = 0.147\nsamples = 125\nvalue = [115, 10]", fillcolor="#e58139e9"] ;
147 -> 148 ;
149 [label="Total eve calls <= 153.0\ngini = 0.123\nsamples = 122\nvalue = [114, 8]", fillcolor="#e58139ed"] ;
148 -> 149 ;
150 [label="Total day charge <= 9.25\ngini = 0.109\nsamples = 121\nvalue = [114, 7]", fillcolor="#e58139ef"] ;
149 -> 150 ;
151 [label="gini = 0.0\nsamples = 1\nvalue = [0, 1]", fillcolor="#399de5ff"] ;
150 -> 151 ;
152 [label="Total night minutes <= 83.65\ngini = 0.095\nsamples = 120\nvalue = [114, 6]", fillcolor="#e58139f2"] ;
150 -> 152 ;
153 [label="gini = 0.0\nsamples = 1\nvalue = [0, 1]", fillcolor="#399de5ff"] ;
152 -> 153 ;
154 [label="Customer service calls <= 4.5\ngini = 0.081\nsamples = 119\nvalue = [114, 5]", fillcolor="#e58139f4"] ;
152 -> 154 ;
155 [label="Area code <= 411.5\ngini = 0.05\nsamples = 117\nvalue = [114, 3]", fillcolor="#e58139f8"] ;
154 -> 155 ;
156 [label="Total intl calls <= 3.5\ngini = 0.191\nsamples = 28\nvalue = [25, 3]", fillcolor="#e58139e0"] ;
155 -> 156 ;
157 [label="gini = 0.469\nsamples = 8\nvalue = [5, 3]", fillcolor="#e5813966"] ;
156 -> 157 ;
158 [label="gini = 0.0\nsamples = 20\nvalue = [20, 0]", fillcolor="#e58139ff"] ;
156 -> 158 ;
159 [label="gini = 0.0\nsamples = 89\nvalue = [89, 0]", fillcolor="#e58139ff"] ;
155 -> 159 ;
160 [label="gini = 0.0\nsamples = 2\nvalue = [0, 2]", fillcolor="#399de5ff"] ;
154 -> 160 ;
161 [label="gini = 0.0\nsamples = 1\nvalue = [0, 1]", fillcolor="#399de5ff"] ;
149 -> 161 ;
162 [label="Total day charge <= 24.73\ngini = 0.444\nsamples = 3\nvalue = [1, 2]", fillcolor="#399de57f"] ;
148 -> 162 ;
163 [label="gini = 0.0\nsamples = 1\nvalue = [1, 0]", fillcolor="#e58139ff"] ;
162 -> 163 ;
164 [label="gini = 0.0\nsamples = 2\nvalue = [0, 2]", fillcolor="#399de5ff"] ;
162 -> 164 ;
165 [label="Total eve charge <= 20.7\ngini = 0.48\nsamples = 10\nvalue = [4, 6]", fillcolor="#399de555"] ;
147 -> 165 ;
166 [label="Total night minutes <= 203.6\ngini = 0.444\nsamples = 6\nvalue = [4, 2]", fillcolor="#e581397f"] ;
165 -> 166 ;
167 [label="gini = 0.0\nsamples = 3\nvalue = [3, 0]", fillcolor="#e58139ff"] ;
166 -> 167 ;
168 [label="Total eve calls <= 76.5\ngini = 0.444\nsamples = 3\nvalue = [1, 2]", fillcolor="#399de57f"] ;
166 -> 168 ;
169 [label="gini = 0.0\nsamples = 1\nvalue = [1, 0]", fillcolor="#e58139ff"] ;
168 -> 169 ;
170 [label="gini = 0.0\nsamples = 2\nvalue = [0, 2]", fillcolor="#399de5ff"] ;
168 -> 170 ;
171 [label="gini = 0.0\nsamples = 4\nvalue = [0, 4]", fillcolor="#399de5ff"] ;
165 -> 171 ;
172 [label="gini = 0.0\nsamples = 31\nvalue = [0, 31]", fillcolor="#399de5ff"] ;
146 -> 172 ;
}